digraph Tree {
node [shape=box, fontname="helvetica"] ;
edge [fontname="helvetica"] ;
0 [label="flee <= 1.5\nentropy = 0.81\nsamples = 2930\nvalue = [2199, 731]\nclass = No"] ;
1 [label="armed <= 13.0\nentropy = 0.499\nsamples = 821\nvalue = [731, 90]\nclass = No"] ;
0 -> 1 [labeldistance=2.5, labelangle=45, headlabel="True"] ;
2 [label="armed <= 2.0\nentropy = 0.722\nsamples = 5\nvalue = [1, 4]\nclass = Yes"] ;
1 -> 2 ;
3 [label="entropy = 1.0\nsamples = 2\nvalue = [1, 1]\nclass = No"] ;
2 -> 3 ;
4 [label="entropy = 0.0\nsamples = 3\nvalue = [0, 3]\nclass = Yes"] ;
2 -> 4 ;
5 [label="armed <= 75.5\nentropy = 0.486\nsamples = 816\nvalue = [730, 86]\nclass = No"] ;
1 -> 5 ;
6 [label="armed <= 40.0\nentropy = 0.515\nsamples = 722\nvalue = [639, 83]\nclass = No"] ;
5 -> 6 ;
7 [label="race <= 2.5\nentropy = 0.446\nsamples = 539\nvalue = [489, 50]\nclass = No"] ;
6 -> 7 ;
8 [label="flee <= 0.5\nentropy = 0.32\nsamples = 275\nvalue = [259, 16]\nclass = No"] ;
7 -> 8 ;
9 [label="entropy = 0.466\nsamples = 111\nvalue = [100, 11]\nclass = No"] ;
8 -> 9 ;
10 [label="entropy = 0.197\nsamples = 164\nvalue = [159, 5]\nclass = No"] ;
8 -> 10 ;
11 [label="age <= 17.5\nentropy = 0.554\nsamples = 264\nvalue = [230, 34]\nclass = No"] ;
7 -> 11 ;
12 [label="entropy = 0.0\nsamples = 3\nvalue = [0, 3]\nclass = Yes"] ;
11 -> 12 ;
13 [label="entropy = 0.526\nsamples = 261\nvalue = [230, 31]\nclass = No"] ;
11 -> 13 ;
14 [label="flee <= 0.5\nentropy = 0.681\nsamples = 183\nvalue = [150, 33]\nclass = No"] ;
6 -> 14 ;
15 [label="armed <= 45.5\nentropy = 0.387\nsamples = 66\nvalue = [61, 5]\nclass = No"] ;
14 -> 15 ;
16 [label="entropy = 0.0\nsamples = 18\nvalue = [18, 0]\nclass = No"] ;
15 -> 16 ;
17 [label="entropy = 0.482\nsamples = 48\nvalue = [43, 5]\nclass = No"] ;
15 -> 17 ;
18 [label="age <= 18.5\nentropy = 0.794\nsamples = 117\nvalue = [89, 28]\nclass = No"] ;
14 -> 18 ;
19 [label="entropy = 0.0\nsamples = 11\nvalue = [11, 0]\nclass = No"] ;
18 -> 19 ;
20 [label="entropy = 0.833\nsamples = 106\nvalue = [78, 28]\nclass = No"] ;
18 -> 20 ;
21 [label="gender <= 0.5\nentropy = 0.204\nsamples = 94\nvalue = [91, 3]\nclass = No"] ;
5 -> 21 ;
22 [label="race <= 3.5\nentropy = 0.811\nsamples = 4\nvalue = [3, 1]\nclass = No"] ;
21 -> 22 ;
23 [label="entropy = 0.0\nsamples = 2\nvalue = [2, 0]\nclass = No"] ;
22 -> 23 ;
24 [label="entropy = 1.0\nsamples = 2\nvalue = [1, 1]\nclass = No"] ;
22 -> 24 ;
25 [label="armed <= 76.5\nentropy = 0.154\nsamples = 90\nvalue = [88, 2]\nclass = No"] ;
21 -> 25 ;
26 [label="race <= 2.5\nentropy = 0.286\nsamples = 40\nvalue = [38, 2]\nclass = No"] ;
25 -> 26 ;
27 [label="entropy = 0.485\nsamples = 19\nvalue = [17, 2]\nclass = No"] ;
26 -> 27 ;
28 [label="entropy = 0.0\nsamples = 21\nvalue = [21, 0]\nclass = No"] ;
26 -> 28 ;
29 [label="entropy = 0.0\nsamples = 50\nvalue = [50, 0]\nclass = No"] ;
25 -> 29 ;
30 [label="race <= 3.5\nentropy = 0.886\nsamples = 2109\nvalue = [1468, 641]\nclass = No"] ;
0 -> 30 [labeldistance=2.5, labelangle=-45, headlabel="False"] ;
31 [label="armed <= 33.5\nentropy = 0.779\nsamples = 964\nvalue = [742, 222]\nclass = No"] ;
30 -> 31 ;
32 [label="armed <= 9.0\nentropy = 0.667\nsamples = 551\nvalue = [455, 96]\nclass = No"] ;
31 -> 32 ;
33 [label="age <= 27.5\nentropy = 0.989\nsamples = 16\nvalue = [9, 7]\nclass = No"] ;
32 -> 33 ;
34 [label="entropy = 0.0\nsamples = 3\nvalue = [0, 3]\nclass = Yes"] ;
33 -> 34 ;
35 [label="body_camera <= 0.5\nentropy = 0.89\nsamples = 13\nvalue = [9, 4]\nclass = No"] ;
33 -> 35 ;
36 [label="entropy = 0.544\nsamples = 8\nvalue = [7, 1]\nclass = No"] ;
35 -> 36 ;
37 [label="entropy = 0.971\nsamples = 5\nvalue = [2, 3]\nclass = Yes"] ;
35 -> 37 ;
38 [label="race <= 1.5\nentropy = 0.649\nsamples = 535\nvalue = [446, 89]\nclass = No"] ;
32 -> 38 ;
39 [label="age <= 19.5\nentropy = 0.577\nsamples = 321\nvalue = [277, 44]\nclass = No"] ;
38 -> 39 ;
40 [label="entropy = 0.0\nsamples = 23\nvalue = [23, 0]\nclass = No"] ;
39 -> 40 ;
41 [label="entropy = 0.604\nsamples = 298\nvalue = [254, 44]\nclass = No"] ;
39 -> 41 ;
42 [label="age <= 63.5\nentropy = 0.742\nsamples = 214\nvalue = [169, 45]\nclass = No"] ;
38 -> 42 ;
43 [label="entropy = 0.728\nsamples = 212\nvalue = [169, 43]\nclass = No"] ;
42 -> 43 ;
44 [label="entropy = 0.0\nsamples = 2\nvalue = [0, 2]\nclass = Yes"] ;
42 -> 44 ;
45 [label="threat_level <= 1.5\nentropy = 0.887\nsamples = 413\nvalue = [287, 126]\nclass = No"] ;
31 -> 45 ;
46 [label="threat_level <= 0.5\nentropy = 0.909\nsamples = 386\nvalue = [261, 125]\nclass = No"] ;
45 -> 46 ;
47 [label="body_camera <= 0.5\nentropy = 0.796\nsamples = 162\nvalue = [123, 39]\nclass = No"] ;
46 -> 47 ;
48 [label="entropy = 0.736\nsamples = 140\nvalue = [111, 29]\nclass = No"] ;
47 -> 48 ;
49 [label="entropy = 0.994\nsamples = 22\nvalue = [12, 10]\nclass = No"] ;
47 -> 49 ;
50 [label="age <= 56.5\nentropy = 0.961\nsamples = 224\nvalue = [138, 86]\nclass = No"] ;
46 -> 50 ;
51 [label="entropy = 0.974\nsamples = 207\nvalue = [123, 84]\nclass = No"] ;
50 -> 51 ;
52 [label="entropy = 0.523\nsamples = 17\nvalue = [15, 2]\nclass = No"] ;
50 -> 52 ;
53 [label="armed <= 76.5\nentropy = 0.229\nsamples = 27\nvalue = [26, 1]\nclass = No"] ;
45 -> 53 ;
54 [label="entropy = 0.0\nsamples = 26\nvalue = [26, 0]\nclass = No"] ;
53 -> 54 ;
55 [label="entropy = 0.0\nsamples = 1\nvalue = [0, 1]\nclass = Yes"] ;
53 -> 55 ;
56 [label="flee <= 2.5\nentropy = 0.948\nsamples = 1145\nvalue = [726, 419]\nclass = No"] ;
30 -> 56 ;
57 [label="armed <= 74.5\nentropy = 0.953\nsamples = 1101\nvalue = [690, 411]\nclass = No"] ;
56 -> 57 ;
58 [label="armed <= 31.0\nentropy = 0.962\nsamples = 1002\nvalue = [616, 386]\nclass = No"] ;
57 -> 58 ;
59 [label="age <= 53.5\nentropy = 0.935\nsamples = 704\nvalue = [457, 247]\nclass = No"] ;
58 -> 59 ;
60 [label="entropy = 0.911\nsamples = 534\nvalue = [360, 174]\nclass = No"] ;
59 -> 60 ;
61 [label="entropy = 0.986\nsamples = 170\nvalue = [97, 73]\nclass = No"] ;
59 -> 61 ;
62 [label="age <= 21.5\nentropy = 0.997\nsamples = 298\nvalue = [159, 139]\nclass = No"] ;
58 -> 62 ;
63 [label="entropy = 0.722\nsamples = 15\nvalue = [12, 3]\nclass = No"] ;
62 -> 63 ;
64 [label="entropy = 0.999\nsamples = 283\nvalue = [147, 136]\nclass = No"] ;
62 -> 64 ;
65 [label="age <= 29.5\nentropy = 0.815\nsamples = 99\nvalue = [74, 25]\nclass = No"] ;
57 -> 65 ;
66 [label="age <= 22.5\nentropy = 0.449\nsamples = 32\nvalue = [29, 3]\nclass = No"] ;
65 -> 66 ;
67 [label="entropy = 0.881\nsamples = 10\nvalue = [7, 3]\nclass = No"] ;
66 -> 67 ;
68 [label="entropy = 0.0\nsamples = 22\nvalue = [22, 0]\nclass = No"] ;
66 -> 68 ;
69 [label="age <= 33.5\nentropy = 0.913\nsamples = 67\nvalue = [45, 22]\nclass = No"] ;
65 -> 69 ;
70 [label="entropy = 0.946\nsamples = 11\nvalue = [4, 7]\nclass = Yes"] ;
69 -> 70 ;
71 [label="entropy = 0.838\nsamples = 56\nvalue = [41, 15]\nclass = No"] ;
69 -> 71 ;
72 [label="age <= 33.0\nentropy = 0.684\nsamples = 44\nvalue = [36, 8]\nclass = No"] ;
56 -> 72 ;
73 [label="body_camera <= 0.5\nentropy = 0.937\nsamples = 17\nvalue = [11, 6]\nclass = No"] ;
72 -> 73 ;
74 [label="armed <= 75.5\nentropy = 0.896\nsamples = 16\nvalue = [11, 5]\nclass = No"] ;
73 -> 74 ;
75 [label="entropy = 0.94\nsamples = 14\nvalue = [9, 5]\nclass = No"] ;
74 -> 75 ;
76 [label="entropy = 0.0\nsamples = 2\nvalue = [2, 0]\nclass = No"] ;
74 -> 76 ;
77 [label="entropy = 0.0\nsamples = 1\nvalue = [0, 1]\nclass = Yes"] ;
73 -> 77 ;
78 [label="age <= 46.0\nentropy = 0.381\nsamples = 27\nvalue = [25, 2]\nclass = No"] ;
72 -> 78 ;
79 [label="entropy = 0.0\nsamples = 18\nvalue = [18, 0]\nclass = No"] ;
78 -> 79 ;
80 [label="age <= 48.5\nentropy = 0.764\nsamples = 9\nvalue = [7, 2]\nclass = No"] ;
78 -> 80 ;
81 [label="entropy = 0.0\nsamples = 2\nvalue = [0, 2]\nclass = Yes"] ;
80 -> 81 ;
82 [label="entropy = 0.0\nsamples = 7\nvalue = [7, 0]\nclass = No"] ;
80 -> 82 ;
}